/*
Author: Bharadwaj
Following is the Deep Q-learning network architecture based on ConvNetJS that can run a car at average speed of 65.88 MPH 
in Deep Traffic v2.0 competition for MIT course 6.S094 Deep Learning for Self-Driving cars.

Note: 65 MPH is the cut-off speed for getting assignment credits, so this "brain" served that purpose very well. :)
*/



//<![CDATA[

// a few things don't have var in front of them - they update already existing variables the game needs
lanesSide = 1;
patchesAhead = 5;
patchesBehind = 4;
trainIterations = 10000;

// the number of other autonomous vehicles controlled by your network
otherAgents = 0; // max of 9

var num_inputs = (lanesSide * 2 + 1) * (patchesAhead + patchesBehind);
var num_actions = 5;
var temporal_window = 0;
var network_size = num_inputs * temporal_window + num_actions * temporal_window + num_inputs;

var layer_defs = [];
    layer_defs.push({
    type: 'input',
    out_sx: 1,
    out_sy: 1,
    out_depth: network_size
});
layer_defs.push({
    type: 'fc',
    num_neurons: 40,
    activation: 'tanh'
});
layer_defs.push({
    type: 'fc',
    num_neurons: 10,
    activation: 'tanh'
});
layer_defs.push({
    type: 'fc',
    num_neurons: 3,
    activation: 'leaky_relu'
});
layer_defs.push({
    type: 'regression',
    num_neurons: num_actions
});

var tdtrainer_options = {
    learning_rate: 0.001,
    momentum: 0.3,
    batch_size: 64,
    l2_decay: 0.03
};

var opt = {};
opt.temporal_window = temporal_window;
opt.experience_size = 5000;
opt.start_learn_threshold = 2000;
opt.gamma = 0.7;
opt.learning_steps_total = 300000;
opt.learning_steps_burnin = 5000;
opt.epsilon_min = 0.05;
opt.epsilon_test_time = 0.05;
opt.layer_defs = layer_defs;
opt.tdtrainer_options = tdtrainer_options;

brain = new deepqlearn.Brain(num_inputs, num_actions, opt);

learn = function (state, lastReward) {
brain.backward(lastReward);
var action = brain.forward(state);

draw_net();
draw_stats();

return action;
}

//]]>

/*###########*/
if (brain) {
brain.value_net.fromJSON({"layers":[{"out_depth":27,"out_sx":1,"out_sy":1,"layer_type":"input"},{"out_depth":40,"out_sx":1,"out_sy":1,"layer_type":"fc","num_inputs":27,"l1_decay_mul":0,"l2_decay_mul":1,"filters":[{"sx":1,"sy":1,"depth":27,"w":{"0":0.054873936032368946,"1":-0.11503870919015792,"2":-0.059691523391946576,"3":-0.27087285016350343,"4":0.07710277712788043,"5":0.11070284088769677,"6":-0.30370702612305667,"7":-0.22021724327720266,"8":0.07893824372200617,"9":-0.06354052980088283,"10":0.11552396100579664,"11":0.21737564611213175,"12":0.12045516594267254,"13":0.01620496636247907,"14":0.024870264151347778,"15":0.2576123437823402,"16":-0.029895420021019383,"17":-0.10133731401608617,"18":-0.16416909290607332,"19":0.01963484707039314,"20":0.3044151604190537,"21":-0.03160886592240536,"22":0.06712134792663298,"23":0.10706173924678235,"24":-0.08648074166124832,"25":0.1582533434624879,"26":0.38461760805915723}},{"sx":1,"sy":1,"depth":27,"w":{"0":-0.14097083023177404,"1":-0.329470246668133,"2":-0.0750428129465706,"3":-0.15213257171267244,"4":-0.1138477479375692,"5":-0.13385856790022813,"6":0.04289551995891696,"7":0.1405447904411146,"8":0.09145081374272027,"9":-0.057563009515632195,"10":0.2447329496524591,"11":-0.12559925256137702,"12":0.10812205821153041,"13":-0.014849868428698005,"14":0.03228046223250504,"15":0.02034448124164761,"16":0.20996873507889605,"17":-0.16673382323278513,"18":-0.3188175031062811,"19":0.0973413604638859,"20":0.11048779981919495,"21":0.06911422108197449,"22":-0.04781217852122874,"23":-0.2092805098318339,"24":0.32609964091320875,"25":0.18258809768607823,"26":-0.028168218982606293}},{"sx":1,"sy":1,"depth":27,"w":{"0":-0.007672679509736236,"1":-0.020164731256720712,"2":-0.329318341260266,"3":-0.133106935148597,"4":-0.3015577031933781,"5":0.02551238678139593,"6":0.32784293127382436,"7":0.20454170213986098,"8":-0.016833753334358957,"9":-0.08124839741910524,"10":-0.06470244925567138,"11":0.17446356179027744,"12":-0.25939455280541196,"13":-0.1943266510711852,"14":-0.06538733262818476,"15":-0.268098310127892,"16":-0.4067376817782068,"17":0.4892242659654415,"18":-0.0024672456881281034,"19":-0.1701931736538818,"20":-0.026192189030274902,"21":0.19879537013813497,"22":0.17786800962250393,"23":0.057548330861066165,"24":0.03660541553523803,"25":0.14396865291019986,"26":-0.40841117607822125}},{"sx":1,"sy":1,"depth":27,"w":{"0":0.10650800374659038,"1":0.2344663971751431,"2":-0.02787832242737147,"3":0.12617139519776305,"4":0.13006401565211675,"5":0.02688431281721882,"6":0.10760354108660874,"7":-0.029449348262267132,"8":0.12947725852487216,"9":0.09245965708025898,"10":-0.26496394411974733,"11":0.03347570205448332,"12":0.18005649451254166,"13":-0.13728971588446504,"14":0.2910132167254172,"15":0.04697664379682752,"16":-0.38601847051903215,"17":0.22615333839563556,"18":0.00744937102518641,"19":-0.04803510313724385,"20":-0.030248032617503046,"21":-0.004621835064167182,"22":-0.26746999581927355,"23":0.2261258448727145,"24":0.23528942497534702,"25":0.09172551318376808,"26":-0.4145717825778842}},{"sx":1,"sy":1,"depth":27,"w":{"0":0.17009628053074144,"1":-0.08682604913414818,"2":-0.03918236283062647,"3":-0.47166767299769957,"4":-0.33005387588584967,"5":0.14600137687882853,"6":0.29893956740505756,"7":0.08648347259497428,"8":-0.09563192804966941,"9":0.14460853549392302,"10":0.07516767666004254,"11":-0.0065997629417272365,"12":-0.4130996895774245,"13":-0.048693910201251085,"14":0.2866119452032682,"15":-0.10309249424732404,"16":0.3042679380522123,"17":0.09336282700424016,"18":0.2508547752902149,"19":0.26704597814812137,"20":-0.03741461153643149,"21":-0.011477558956178328,"22":-0.06953531391979069,"23":0.07385711785529925,"24":-0.32876753845141155,"25":-0.03523467750782285,"26":-0.21430801386112575}},{"sx":1,"sy":1,"depth":27,"w":{"0":0.3537787938668893,"1":-0.2786984390883286,"2":-0.04784728517985244,"3":-0.0038451626815343945,"4":0.12131542221046299,"5":0.018745185516986323,"6":-0.01880795862541458,"7":-0.04899511653994475,"8":-0.09417105329364805,"9":-0.10941600516541172,"10":0.03807184871938462,"11":-0.13905422022674824,"12":0.2831068132496978,"13":-0.24771974698465704,"14":-0.2260810327194157,"15":0.036394335235602,"16":0.046792566820905955,"17":0.04393824607280006,"18":-0.20369152982415975,"19":-0.09603504746312545,"20":-0.30906456359714163,"21":-0.10480151227683136,"22":-0.049422791086496616,"23":-0.09813673121852008,"24":-0.09179312149374862,"25":0.12308475269400011,"26":0.023780152156447052}},{"sx":1,"sy":1,"depth":27,"w":{"0":0.09148554183840993,"1":0.024730487931964827,"2":0.21114233860720608,"3":0.12309471483709955,"4":-0.17610224093572205,"5":0.2964814788640109,"6":0.09517262005503688,"7":0.08227227884196808,"8":0.20882556255916768,"9":0.2569903760080037,"10":-0.04480332092706267,"11":-0.007623821108650515,"12":-0.1226590347463714,"13":0.08478994939035288,"14":0.01578442841537879,"15":-0.05181820636398788,"16":-0.26128732863146276,"17":0.16495138399793985,"18":0.0036455489459030015,"19":-0.010116146053224834,"20":0.1722423836656961,"21":-0.22609279116535105,"22":-0.01454457324866634,"23":0.41984499775888634,"24":-0.1586545082905002,"25":-0.16910502020198223,"26":-0.17887088794341413}},{"sx":1,"sy":1,"depth":27,"w":{"0":-0.15354604582290599,"1":0.15899377238328127,"2":-0.23595240724263813,"3":-0.05163275100478401,"4":0.11601584744107828,"5":0.26295225153160645,"6":-0.24921503367827685,"7":0.008328664808265478,"8":0.11923964151549372,"9":0.45702377365225016,"10":-0.013533190385250242,"11":-0.34095957951787154,"12":-0.06331401111564798,"13":0.19631270349933774,"14":-0.09741359654708623,"15":-0.05933634762170723,"16":-0.26693952657312037,"17":0.13451500649901013,"18":-0.27696011096368944,"19":-0.09886963206931874,"20":-0.44672363261565423,"21":0.039475245421024326,"22":-0.29357625653548053,"23":0.053345779089798755,"24":-0.20743077946262395,"25":-0.12888337430179034,"26":-0.010972575496210347}},{"sx":1,"sy":1,"depth":27,"w":{"0":0.25825794408164054,"1":-0.3310814205642467,"2":0.21121153600459944,"3":0.22486427559500935,"4":0.12047553316826622,"5":0.08788256535660946,"6":0.5024204025377693,"7":0.2185435512152591,"8":-0.060446937223805806,"9":-0.15627321235097985,"10":0.21172783179639906,"11":-0.17132544192129964,"12":0.1335386895207415,"13":-0.14189236042106368,"14":0.16347566431488317,"15":0.25170283684580935,"16":-0.16301006869988893,"17":0.28237405103283725,"18":-0.05285325941966668,"19":-0.09345351420282241,"20":0.20338763271529353,"21":-0.027687781641904715,"22":0.09237661659970797,"23":-0.2859772630109375,"24":0.1701439770986611,"25":0.014430428734096359,"26":-0.14016570253162478}},{"sx":1,"sy":1,"depth":27,"w":{"0":-0.07497968351133416,"1":-0.01978224865988428,"2":0.09534043148502636,"3":0.24610471233659195,"4":-0.27967551935418533,"5":-0.14608825352777208,"6":0.16185010343459652,"7":0.051896433425853226,"8":-0.015031575942060484,"9":0.05142014117684228,"10":-0.047711062819186474,"11":0.2202011785929006,"12":0.19670753032414362,"13":0.15319807792018478,"14":-0.09706318736535097,"15":0.28789092493927115,"16":0.14028692721883324,"17":-0.14448735691086753,"18":-0.040018601161079935,"19":-0.08182954263172407,"20":0.2272530149414646,"21":0.21302938536418203,"22":0.04817646200128278,"23":-0.41162937167575747,"24":-0.1155408787351904,"25":-0.02581662681588388,"26":-0.12567239741289296}},{"sx":1,"sy":1,"depth":27,"w":{"0":-0.10651096776743962,"1":-0.21225163516577433,"2":0.3322548855950967,"3":-0.19011842232630874,"4":-0.34560193292827296,"5":-0.3330100341297528,"6":-0.10836192684945659,"7":0.01619437242856581,"8":-0.03411653263490908,"9":0.2928569484107229,"10":0.04857044890226265,"11":-0.020679807572690022,"12":0.01976816285304448,"13":0.15116716648345108,"14":-0.18070790729891512,"15":0.151914158169057,"16":-0.04101639392624112,"17":0.16260349300772178,"18":0.06494454128425185,"19":-0.12856672459540758,"20":0.02673784411947366,"21":0.03266937662354742,"22":-0.34367679864025225,"23":0.27901719565236166,"24":-0.18460221083577447,"25":-0.16868886640911293,"26":0.2121681625350323}},{"sx":1,"sy":1,"depth":27,"w":{"0":-0.0017699308917464866,"1":0.5320812379294354,"2":-0.13878965623507997,"3":-0.057237913276954454,"4":-0.4344594423134637,"5":0.04508012659363708,"6":0.1709496520162946,"7":-0.0658259914031395,"8":-0.1997190193737123,"9":0.3342676607764072,"10":0.45471277244873326,"11":0.1975924619246786,"12":0.33819613922971387,"13":0.09794693914596894,"14":0.047212206554475236,"15":0.079270406891956,"16":0.43241084492597986,"17":0.5573254475024002,"18":-0.06251923998734568,"19":-0.042243533320772624,"20":0.04901670490402234,"21":-0.3629301506046186,"22":-0.4099319852372643,"23":0.3195689209586467,"24":-0.3698790312254978,"25":-0.21461758168056624,"26":-0.11153050524272692}},{"sx":1,"sy":1,"depth":27,"w":{"0":0.06650332139981034,"1":0.06722994822662555,"2":-0.16360985141134235,"3":-0.037708671930191645,"4":0.18756993687677362,"5":0.014128850682651722,"6":-0.19291068098407224,"7":0.40776635598779565,"8":0.018448061031041997,"9":0.28144998441031266,"10":0.11036956329183271,"11":0.4228953385887848,"12":-0.3241022091163894,"13":0.023259083014500595,"14":0.020477517923785396,"15":0.09001226183763623,"16":-0.22903149781134666,"17":-0.19163974657409416,"18":0.11489533158316183,"19":0.051775178482853554,"20":0.10073294079457099,"21":0.031882151018459606,"22":-0.1504686112319592,"23":-0.47389680238243564,"24":0.21477959850631428,"25":-0.1105956899690095,"26":0.15366846801678496}},{"sx":1,"sy":1,"depth":27,"w":{"0":-0.007396627634825343,"1":0.37057028740690384,"2":0.27237878981531627,"3":-0.09565010107571778,"4":-0.3722726429210883,"5":0.0959003679052834,"6":0.032485666133703114,"7":-0.0006560296418766116,"8":0.22926282381623841,"9":0.19048795579552236,"10":0.03314843525301165,"11":0.38255902639733114,"12":-0.010708715086738388,"13":-0.13796526179710406,"14":0.045427480684562996,"15":0.08745811677439505,"16":-0.05993031837801362,"17":0.04274430107810133,"18":-0.15540647699368879,"19":0.2272117354202053,"20":0.49579199386438294,"21":-0.14392938445648473,"22":-0.07652348425910648,"23":0.12157390865756477,"24":-0.00006001036827497035,"25":0.07794531079546842,"26":0.1264509789019005}},{"sx":1,"sy":1,"depth":27,"w":{"0":-0.04271007608257684,"1":-0.2294989440832937,"2":-0.0593432377353509,"3":0.2728302727489294,"4":-0.10083745162249605,"5":0.0590079864482015,"6":-0.3383995341795505,"7":0.029109887622785695,"8":0.42707268912330026,"9":-0.012626523436331872,"10":-0.10545686371051073,"11":-0.14855942574552208,"12":0.062028682406376046,"13":0.022567179210054085,"14":0.1395989163802616,"15":-0.10069355209368179,"16":-0.04884505321637028,"17":-0.013110616674332602,"18":-0.4138691170191224,"19":0.07342995938968387,"20":0.014498660492972371,"21":-0.0715213322598251,"22":0.2932486943687254,"23":-0.11320127833699659,"24":0.27061094999990276,"25":-0.2622394413858786,"26":-0.06806341626649404}},{"sx":1,"sy":1,"depth":27,"w":{"0":-0.09209145757365057,"1":0.08244293331041767,"2":0.3659876426554411,"3":0.13312814957945165,"4":0.210588409972927,"5":-0.020105178874577818,"6":-0.3292961851820513,"7":0.149484238377554,"8":0.050432973169221115,"9":0.02131781409135006,"10":-0.07390180570693564,"11":-0.15517610796524478,"12":-0.027920247659778186,"13":0.21932295246873162,"14":-0.007247774679246794,"15":0.07704802474192435,"16":0.0011968481378072993,"17":0.12339247648810195,"18":-0.2863658037215632,"19":0.1480440550094801,"20":0.19712489957720275,"21":0.2743226633412443,"22":0.22301943816342099,"23":-0.10198172034918324,"24":0.07366110302851663,"25":-0.08846769699710862,"26":-0.42781144581976877}},{"sx":1,"sy":1,"depth":27,"w":{"0":-0.286678298224629,"1":-0.017788053653589334,"2":-0.09752737127395866,"3":0.12930162206331053,"4":-0.0031472077027520275,"5":-0.10451524436216107,"6":0.34832317131785523,"7":0.07606459462287224,"8":0.17266125274439056,"9":0.31893109036162165,"10":0.24165031081059157,"11":0.052081841930180055,"12":-0.009382867836916779,"13":-0.045152814363819294,"14":0.35575196071197684,"15":0.02159421352530979,"16":0.014869686161386448,"17":0.2998063344386484,"18":0.11739692049802955,"19":0.11455517534750685,"20":0.05615187399715956,"21":0.027318965643652455,"22":-0.010131389014427382,"23":0.1677828120902571,"24":0.199729520736783,"25":0.08471863349625529,"26":-0.13839551213011234}},{"sx":1,"sy":1,"depth":27,"w":{"0":-0.2082022646616465,"1":0.10020043213303148,"2":0.20466198878764838,"3":-0.3633874209474418,"4":0.2879507882839121,"5":0.28417797883887963,"6":0.18468843218597697,"7":0.142963892653077,"8":0.03017716330610367,"9":-0.15886581560097063,"10":0.07896711721821188,"11":0.006852061729512118,"12":-0.04873391898337989,"13":-0.15378675193733168,"14":-0.3774821306956076,"15":0.2434159944615636,"16":-0.3613462745672606,"17":-0.06951520813812655,"18":0.022950393483412126,"19":0.17423077573423015,"20":-0.07960452186681682,"21":0.001287234028984968,"22":-0.243142127747345,"23":0.20708368320073386,"24":-0.327670218294496,"25":-0.3286447682371204,"26":0.1404908031062346}},{"sx":1,"sy":1,"depth":27,"w":{"0":-0.08985927099193915,"1":0.021811133546074918,"2":0.28225482846559724,"3":0.43897853653519964,"4":0.061404620093463945,"5":-0.20954145037869967,"6":-0.2706507869894752,"7":0.11256443034978868,"8":-0.09074241105804257,"9":-0.11673642946379394,"10":0.06309817492025284,"11":0.23811442956685697,"12":0.06168600094915555,"13":0.2652837756826557,"14":-0.16369476091004143,"15":0.2923597645716033,"16":0.14536909759721314,"17":0.055319189808262254,"18":0.24676350583097842,"19":-0.12209751000377234,"20":0.1684434679959602,"21":0.03266081744800211,"22":-0.10549769194423267,"23":-0.10811524678125915,"24":0.026916422297231356,"25":-0.26102908151307097,"26":0.13005189695412137}},{"sx":1,"sy":1,"depth":27,"w":{"0":-0.0637009761186973,"1":0.09027793227449647,"2":-0.2804944302650933,"3":-0.22636870644179133,"4":-0.027557776923790366,"5":0.041860306205672215,"6":0.04945591047418998,"7":-0.08587031814688188,"8":0.3940207551901621,"9":-0.10337212789935421,"10":0.14741203402815012,"11":0.3588474878712372,"12":0.23209838547054618,"13":0.5300051124845919,"14":0.04029128080688788,"15":0.05143103317785232,"16":0.0015991466411975294,"17":-0.3667489023291978,"18":-0.12919374909828232,"19":-0.04576338455171176,"20":0.0966557363828471,"21":0.4205927645168041,"22":-0.1114766615996194,"23":0.058270761665549856,"24":-0.08987243970195022,"25":-0.16956265904619658,"26":-0.15949856491649564}},{"sx":1,"sy":1,"depth":27,"w":{"0":-0.3198188318994037,"1":-0.16809253779232936,"2":-0.16147727076917917,"3":0.15761678597373407,"4":0.364182808857484,"5":0.2358653632253389,"6":-0.06825612693382187,"7":0.33049533546934395,"8":0.23325434086396446,"9":0.005236308665415939,"10":-0.21991765264721308,"11":0.11833428915998824,"12":-0.2791648480739235,"13":0.026879535455886974,"14":0.27765986292571815,"15":-0.058348773549607415,"16":0.20670808296150625,"17":-0.08098365671317068,"18":0.39156909006445484,"19":-0.4028264671181348,"20":0.056520005480880924,"21":-0.02653199143208101,"22":-0.3320000159901862,"23":0.12620843798661247,"24":-0.181274302507123,"25":0.25448623182642993,"26":-0.25443537244105846}},{"sx":1,"sy":1,"depth":27,"w":{"0":0.10054126580609932,"1":0.4741085513747645,"2":-0.15810945685359948,"3":0.24631280107307574,"4":-0.10862854197340646,"5":-0.12359805540096974,"6":-0.13613304172048754,"7":-0.06452402944993926,"8":-0.21905480221868434,"9":-0.1251968837315236,"10":0.11346095240075088,"11":0.09717008791051758,"12":0.46717130792940076,"13":-0.10139849911844229,"14":-0.005790543419813873,"15":-0.07805025711086089,"16":0.19085866620897315,"17":-0.04251294502775845,"18":-0.06560701404254843,"19":0.011265873650942122,"20":-0.10984113440344047,"21":-0.10558596798126585,"22":-0.529967939030049,"23":0.13610465632438778,"24":-0.18847048879359957,"25":-0.012862327659988267,"26":0.12404212292468529}},{"sx":1,"sy":1,"depth":27,"w":{"0":0.09781051370412508,"1":0.2173267275192764,"2":-0.16698146193970914,"3":-0.4955083646739436,"4":-0.09917542848218994,"5":-0.16116332023159982,"6":-0.002638544791236306,"7":0.1261776015797106,"8":0.5316666344651395,"9":0.1984925898360228,"10":-0.07898800591630027,"11":-0.0576974333179239,"12":-0.022431483463251196,"13":-0.06625524842389749,"14":0.3219871503716901,"15":0.07771958295594125,"16":0.23160359339746195,"17":0.049948866050907356,"18":0.45801621072407817,"19":0.4574091956513006,"20":-0.17158449175718798,"21":-0.2987116097189777,"22":-0.09646409367419238,"23":-0.29522432077993926,"24":0.3959557845520676,"25":-0.5378351277869989,"26":0.08065714527981235}},{"sx":1,"sy":1,"depth":27,"w":{"0":-0.1241359750081837,"1":-0.11364593556801023,"2":-0.130046249565184,"3":0.07947550770324883,"4":-0.059663040926316024,"5":0.3213722221525283,"6":-0.37296493964337085,"7":-0.3646873974275476,"8":0.019604827122089514,"9":-0.09366465844209752,"10":0.04081082012566328,"11":0.0666311408177531,"12":0.06703474071762437,"13":0.02883110064247185,"14":-0.31141962293771314,"15":-0.0924168172251226,"16":-0.040237655694015835,"17":-0.07042108342135724,"18":-0.06074527325051159,"19":-0.5085002029299939,"20":0.012402671269208923,"21":0.027326735579496206,"22":-0.21321912609317906,"23":0.06474691561339144,"24":0.2066603286567438,"25":-0.2435686277780815,"26":-0.1482970193376601}},{"sx":1,"sy":1,"depth":27,"w":{"0":0.16679951248221786,"1":0.09628771093816046,"2":-0.27188805808753636,"3":-0.3549431895210188,"4":-0.10131518961959372,"5":0.2202199503425004,"6":0.011522956194330889,"7":-0.03096335433168974,"8":0.6485493312350195,"9":0.3318455693784607,"10":0.1455334839709832,"11":-0.21132841748161701,"12":0.09096626610337916,"13":-0.04468697648742595,"14":0.056777764873760406,"15":0.40232678143266715,"16":0.04823368517603647,"17":-0.1621955149316639,"18":0.07150029279350013,"19":-0.3661686711121795,"20":-0.22308360453400505,"21":-0.05132160300538723,"22":-0.08515126004921217,"23":0.0278539702964201,"24":-0.11668942008412064,"25":0.09358671810179213,"26":0.3564821857497981}},{"sx":1,"sy":1,"depth":27,"w":{"0":0.2057391706573582,"1":0.41911380546093496,"2":0.10925957857602064,"3":0.2859292864727762,"4":0.15486750723997086,"5":-0.0594564782222272,"6":0.23597235689035412,"7":0.10565146235853097,"8":-0.009329799520724921,"9":-0.050514726077659854,"10":-0.25290822782507594,"11":-0.11649391039888068,"12":-0.0032388061312853596,"13":0.29925975983597025,"14":-0.13337289836980704,"15":-0.11831982140709482,"16":-0.22615005549642056,"17":-0.1307812233147981,"18":0.23594341624683784,"19":-0.08941701984857517,"20":-0.18982718735333248,"21":-0.20018982666338264,"22":0.053566110242919726,"23":0.1572464519732191,"24":-0.11122266752084434,"25":-0.004031099799774984,"26":0.25342028573088055}},{"sx":1,"sy":1,"depth":27,"w":{"0":-0.24199279826864703,"1":0.008083652101335381,"2":0.08270241703258593,"3":0.19299481926221837,"4":0.2803516817321348,"5":-0.09045041517307377,"6":-0.023408304848430657,"7":-0.2190046244683722,"8":0.1525098201288191,"9":0.14364309936466532,"10":-0.04262345192574194,"11":0.12619829525907947,"12":-0.1283815825635059,"13":-0.36398643763304334,"14":0.09084756901646564,"15":-0.0967690520499733,"16":-0.14806219297452183,"17":-0.14706189507779463,"18":0.0969296174220122,"19":-0.1399920250563598,"20":0.03996694015557751,"21":0.005371551409418924,"22":0.018293513603383285,"23":-0.2291231519175057,"24":-0.051622147991272585,"25":-0.01843637893655153,"26":-0.04755551007110632}},{"sx":1,"sy":1,"depth":27,"w":{"0":-0.018807657553131275,"1":-0.6594114226939183,"2":-0.17102734735871997,"3":0.04333848792314406,"4":-0.2898588936105373,"5":-0.05303822341764047,"6":-0.06146168235985168,"7":0.196499561151016,"8":0.1538310214571182,"9":-0.02178993476995811,"10":-0.01827351375483331,"11":-0.0030107437758801385,"12":-0.05407845541569793,"13":0.08452657504203462,"14":-0.01709758543949989,"15":0.032871187758108496,"16":0.23362515294618458,"17":-0.07389634283475575,"18":0.17778943415178247,"19":0.012938054534689446,"20":-0.08585097739689937,"21":0.27714968720338656,"22":-0.11203230547033101,"23":0.211352458209202,"24":-0.21340379250710034,"25":-0.08241570415381207,"26":0.19362577696799974}},{"sx":1,"sy":1,"depth":27,"w":{"0":0.2492353818459365,"1":-0.1661403867993372,"2":0.07847131813269996,"3":0.32263022089052096,"4":0.05624554547682669,"5":0.19267164741857698,"6":0.38634990406688446,"7":0.2745276443250501,"8":0.029831538007147693,"9":0.18492620272755156,"10":-0.08604776611229958,"11":0.02609697267365712,"12":0.13917240061117114,"13":-0.01426790086305094,"14":-0.21361039699874346,"15":0.03174220714269564,"16":-0.04422831360688715,"17":-0.07623495681632576,"18":0.1415443284449262,"19":-0.15474164391156317,"20":0.23977848666889792,"21":0.16209899936767852,"22":0.07087279412820208,"23":0.02347589632618937,"24":0.1018827218631637,"25":-0.5249330808392064,"26":0.3039669112039696}},{"sx":1,"sy":1,"depth":27,"w":{"0":0.05956063058177213,"1":0.04825079230999457,"2":-0.07372685443849546,"3":-0.002664089905063919,"4":-0.10282359878794231,"5":0.004939594244618643,"6":0.03750900263688594,"7":-0.2598933131045126,"8":0.038425732739532294,"9":-0.026807784277640596,"10":-0.25031721328371537,"11":-0.28740399147647666,"12":0.05963313315737258,"13":0.09945100586876716,"14":-0.003082163245859463,"15":0.31115232882687677,"16":0.30269387848824847,"17":0.12463430119982125,"18":0.0639187671096133,"19":-0.2690064821296373,"20":0.2050355894418272,"21":-0.42093297437415816,"22":-0.11032798125933059,"23":-0.2995629047719697,"24":-0.11285083164013905,"25":0.2997076404091535,"26":-0.3272043000450498}},{"sx":1,"sy":1,"depth":27,"w":{"0":0.2554391999635286,"1":-0.28496401007673683,"2":0.17956851680547373,"3":-0.2097690916265161,"4":-0.09812051912763935,"5":0.101349832274813,"6":0.1017669282194993,"7":-0.21652454680938746,"8":-0.030337863825304432,"9":-0.20097030673017982,"10":0.06708840618870317,"11":-0.2954732603759156,"12":0.4063153335019473,"13":0.23197887627904007,"14":-0.19032208696085637,"15":0.16648756651902652,"16":-0.02310715794348676,"17":0.0657217924618004,"18":-0.0169343941370161,"19":0.01482670681506696,"20":-0.10295197824737079,"21":-0.20105139161451308,"22":-0.22559966332056056,"23":-0.11539044834515276,"24":-0.1648015767074018,"25":0.03908202713969678,"26":0.052984501713742096}},{"sx":1,"sy":1,"depth":27,"w":{"0":-0.14427492521818353,"1":0.07219666328923487,"2":-0.14285171596344232,"3":0.05046040046340586,"4":0.27746636244004796,"5":0.02696621386671729,"6":-0.035927419223914084,"7":0.2340886800142155,"8":0.040300500808193356,"9":-0.1969138082010341,"10":0.5103089566690919,"11":0.28837213195244527,"12":0.0963025179836974,"13":-0.13439108090891227,"14":-0.2650528066854036,"15":-0.16290869006736133,"16":0.014256195930344995,"17":-0.06525381824998927,"18":-0.11921471911136507,"19":0.10545201607215923,"20":-0.022793568213883404,"21":0.06228902229852535,"22":0.08212029554763278,"23":-0.10612683328319458,"24":-0.10493521763343186,"25":0.31671574612863923,"26":0.029410384504334943}},{"sx":1,"sy":1,"depth":27,"w":{"0":0.31745765268811155,"1":-0.02374576410910094,"2":-0.28808650006392533,"3":0.15722729384560236,"4":0.2507166461708093,"5":0.09274064709427161,"6":-0.14355120534388013,"7":-0.1225601472817141,"8":-0.06958141192512433,"9":-0.09658405823984587,"10":0.3223366391857557,"11":0.5335613188210454,"12":0.015187984476141957,"13":0.038299032673922734,"14":0.2302554683405225,"15":0.09329762291989009,"16":0.01487473859112901,"17":0.08495762178326391,"18":-0.1270935947661568,"19":-0.2679569640060598,"20":-0.02393079163231693,"21":-0.08074725926920746,"22":-0.12241375761281144,"23":-0.04665414075871971,"24":0.1608990383138246,"25":0.007481424213561375,"26":0.004515511153434294}},{"sx":1,"sy":1,"depth":27,"w":{"0":0.09363728757395286,"1":-0.04167573534387712,"2":-0.1170567060706643,"3":-0.4061590016280041,"4":-0.0396550355039367,"5":-0.20385796862232766,"6":-0.019053370773475947,"7":-0.25258048900153324,"8":0.25738272185966693,"9":0.047689684084623755,"10":-0.18830034600607096,"11":-0.1466527226800164,"12":-0.0009153979234685826,"13":0.2714531961930986,"14":0.014230622773456445,"15":-0.023520871080422324,"16":0.03837546836609033,"17":0.0608375008068764,"18":0.009935293861189149,"19":-0.09764838590566909,"20":0.30265443038405715,"21":-0.03693340628581333,"22":-0.2134985731544623,"23":-0.008992467080707937,"24":-0.11589206883830824,"25":-0.17066914013935341,"26":0.04152038341813239}},{"sx":1,"sy":1,"depth":27,"w":{"0":-0.17364062828019552,"1":-0.38206203453013304,"2":0.030408804245274035,"3":-0.1439946084154671,"4":-0.21981999049318884,"5":-0.41732081693861306,"6":-0.7596961009421684,"7":-0.521959825384843,"8":-0.15166319404665357,"9":-0.38105196657298507,"10":-0.008846017145871517,"11":0.20234133810803132,"12":-0.15215663224587944,"13":0.20041392042455566,"14":-0.0940827287093132,"15":-0.2604363425226798,"16":-0.032732652755426396,"17":-0.05527579630622387,"18":0.05634568188795596,"19":0.2122278310222329,"20":0.4099242723596041,"21":-0.06457480236401812,"22":0.11945909003906406,"23":0.15872228508998198,"24":-0.18568975208370064,"25":0.042257550085504796,"26":-0.20584742903233996}},{"sx":1,"sy":1,"depth":27,"w":{"0":0.027796573704664915,"1":0.21678129949848973,"2":-0.041434174217470573,"3":-0.03830471864706931,"4":-0.18969616566300457,"5":0.06077390208374733,"6":0.06935032708472655,"7":-0.08659885146666864,"8":0.034766274963200144,"9":0.10795945652406717,"10":0.22856702312683477,"11":0.15627636561791708,"12":-0.17555535634572236,"13":0.303335335423773,"14":0.09233516201460097,"15":-0.1039609658104699,"16":0.004024279583806543,"17":-0.2327337494789223,"18":0.010926721809323987,"19":0.006867879955134683,"20":-0.0664706626818798,"21":-0.21544885788179674,"22":-0.17621280024903704,"23":0.037686397059185424,"24":0.06419754091200885,"25":0.22946422723148524,"26":0.034511712901227155}},{"sx":1,"sy":1,"depth":27,"w":{"0":-0.35850189112303216,"1":-0.03930824228081571,"2":-0.11162181577117773,"3":-0.1277757240994701,"4":0.2362530044240685,"5":0.015525829259727984,"6":0.3227732299875989,"7":0.008741396675332934,"8":-0.22769657027702214,"9":-0.39141979722634695,"10":0.078348820248395,"11":-0.11892781460499205,"12":0.279655379405802,"13":0.035162455279665286,"14":0.0016090609050447228,"15":0.04488166943131528,"16":0.21020206136126032,"17":0.21210828968447437,"18":0.2802205562294712,"19":0.0286970273989473,"20":0.3809798089408568,"21":0.14840904676985942,"22":0.2537619705005271,"23":0.07101626121634028,"24":0.03829176340921607,"25":0.15685568851601095,"26":-0.4980143678547606}},{"sx":1,"sy":1,"depth":27,"w":{"0":-0.053847665681625155,"1":0.046719101637355265,"2":0.34591495525670574,"3":-0.16173695675639851,"4":0.22682257724025795,"5":-0.07595968463980067,"6":0.0510884919241218,"7":-0.20562919441371666,"8":0.1081370250185284,"9":0.2244103779379103,"10":-0.05298554937572682,"11":-0.17030928367842646,"12":0.042589970953426766,"13":-0.20625422638549934,"14":-0.06817656167802255,"15":-0.05434136373483908,"16":-0.04822129214665987,"17":0.2172002422367463,"18":0.22024101515031305,"19":-0.37418803048991944,"20":0.024811355739361787,"21":0.3687253320083863,"22":0.02145488412327643,"23":0.0800224517242618,"24":0.13094389703187506,"25":0.23415838699354616,"26":0.2615081950645311}},{"sx":1,"sy":1,"depth":27,"w":{"0":0.07158182788374898,"1":-0.20189111542526916,"2":0.12412643132428614,"3":0.1328023139547707,"4":0.12512742874147006,"5":0.15594835775716048,"6":-0.010726220522475736,"7":-0.0729874498445206,"8":0.00952426972806695,"9":0.11199237155177998,"10":-0.21886956706108154,"11":0.08610463010353998,"12":0.2995250818076016,"13":-0.07342505388923973,"14":0.10768535917256426,"15":-0.14226401632041472,"16":0.008888774966897788,"17":-0.2633995926181107,"18":-0.1174782787010493,"19":-0.05470365987306608,"20":-0.2908788025180722,"21":-0.4303152959116451,"22":-0.1834735151785798,"23":0.14683056394936284,"24":-0.025449007310447556,"25":0.19363839568196767,"26":-0.22831366892059704}},{"sx":1,"sy":1,"depth":27,"w":{"0":-0.3176476376965216,"1":-0.22278899130816537,"2":0.03998078020894807,"3":0.2598251883536932,"4":-0.280954979527358,"5":0.0775468833940706,"6":-0.18467959587737212,"7":-0.09048840623318508,"8":-0.051703207145997215,"9":0.12030330360195163,"10":0.14387158149581752,"11":0.3663917293477022,"12":0.058962254611065,"13":-0.1340685316773128,"14":0.0923530266572375,"15":-0.019578196622355857,"16":0.018380566283042278,"17":-0.17293741070942012,"18":0.07934788400010695,"19":-0.13159043884690783,"20":0.04703797637787226,"21":0.020353242201222737,"22":0.03952532058021793,"23":-0.4265300798574565,"24":0.16972402830466368,"25":0.07658749663674026,"26":-0.09494331848216879}}],"biases":{"sx":1,"sy":1,"depth":40,"w":{"0":-0.0101048084119744,"1":-0.02690931127065803,"2":0.007774039837255019,"3":0.0035480252287163764,"4":-0.006397635552495043,"5":-0.01291321624633198,"6":-0.001445848023197282,"7":0.00555333583232514,"8":-0.0017893402675581544,"9":0.022946806972305556,"10":0.0026043801876354977,"11":0.009584750165971967,"12":-0.004955472937105321,"13":0.01501000488384703,"14":-0.0034778920212076426,"15":-0.000044621936548741234,"16":0.0007930750503260211,"17":-0.013213247990189607,"18":0.0011184294394931942,"19":0.0066883558394976355,"20":-0.002900603094169385,"21":-0.023903244302544216,"22":-0.012550287002918237,"23":-0.023567427321797185,"24":-0.005729886675442575,"25":-0.013988743923542345,"26":0.009114164921207257,"27":0.10094744413725254,"28":0.051345104399615836,"29":-0.019826091855016586,"30":-0.010538563271895405,"31":0.012371617921701961,"32":0.01025712083994021,"33":-0.0056712961007790675,"34":0.011280191005414686,"35":0.04576960350802945,"36":0.0025517740906914354,"37":0.013031985272596535,"38":0.0030566529961402636,"39":-0.003782861859823961}}},{"out_depth":40,"out_sx":1,"out_sy":1,"layer_type":"tanh"},{"out_depth":10,"out_sx":1,"out_sy":1,"layer_type":"fc","num_inputs":40,"l1_decay_mul":0,"l2_decay_mul":1,"filters":[{"sx":1,"sy":1,"depth":40,"w":{"0":0.07819223110667334,"1":0.2224538767795928,"2":-0.014250403746433923,"3":-0.15461182127929907,"4":-0.12153450059866339,"5":0.2354495811590782,"6":-0.12613696671471555,"7":-0.18251140048868852,"8":-0.09003733537147168,"9":-0.0948524300519554,"10":0.08909411868387299,"11":0.0674280019132537,"12":-0.07576262300633049,"13":-0.11326626723420433,"14":-0.008917639254404959,"15":0.014062939859820569,"16":-0.08785834396043135,"17":0.15995653599090703,"18":-0.1292747571881764,"19":0.05868862609077695,"20":0.2190977026219348,"21":0.1134181543796874,"22":0.3679760372652971,"23":-0.09218701804374597,"24":-0.10850732065872333,"25":0.07390315001988909,"26":0.005832009501790168,"27":0.2558997267815076,"28":-0.1566884113351877,"29":-0.021533471653181098,"30":0.1177983453369269,"31":-0.14763797849546867,"32":0.021529421236609492,"33":0.08080731198722749,"34":-0.3000333414347509,"35":-0.04087984517952445,"36":0.011500993655589238,"37":-0.09469759609208171,"38":0.1448469528936898,"39":-0.1323272481846076}},{"sx":1,"sy":1,"depth":40,"w":{"0":-0.19884032605577198,"1":0.06711737241960652,"2":-0.05624334750187241,"3":0.1581781282370537,"4":-0.18354460797931832,"5":0.07922478264451283,"6":0.16299162815742457,"7":0.03856446009941441,"8":-0.008664910081566227,"9":-0.06376228419107625,"10":-0.00832329728075331,"11":0.06571399831161043,"12":0.1039668123183605,"13":-0.012738120557278196,"14":0.021582136208845092,"15":0.0724774307994654,"16":-0.12749450731165715,"17":-0.000028696469735419952,"18":-0.08194457622032769,"19":0.06815802209684409,"20":-0.002030557907237831,"21":-0.015283592394350268,"22":0.124667494210389,"23":0.18225910357754407,"24":-0.10734491715078094,"25":0.1053958061506278,"26":-0.11789065771607843,"27":-0.3525397713788957,"28":-0.15235806064549434,"29":-0.12144942128320087,"30":-0.17539495329128868,"31":-0.0427754807367326,"32":0.235814466191871,"33":-0.09820594773081251,"34":-0.13232946996042813,"35":-0.06431074230404975,"36":0.15018921264698543,"37":-0.09995037716202518,"38":-0.15388154944887067,"39":-0.10375402539921709}},{"sx":1,"sy":1,"depth":40,"w":{"0":0.05543570539802115,"1":0.23530678365687516,"2":0.22236092622426362,"3":-0.15113408967201428,"4":0.12646155895971845,"5":0.10983872547063465,"6":0.15220848344305576,"7":0.23299679930477193,"8":-0.17106878792855043,"9":0.11587750275173803,"10":0.3446487516760217,"11":-0.03940683949978973,"12":0.07824395653625191,"13":-0.03583436710365262,"14":0.15426723753210222,"15":-0.07961108215743974,"16":-0.047628992257712846,"17":0.07501137433582866,"18":0.1331162437340611,"19":-0.18401712664717168,"20":0.07227170486866566,"21":-0.10878500216755445,"22":-0.24150977617969205,"23":0.06250601892209044,"24":0.026372632772122696,"25":0.06590059446525381,"26":0.04047454849848653,"27":0.08555031746329891,"28":-0.12265795908668786,"29":0.05816178445444717,"30":0.17795040267720258,"31":-0.06730753495053464,"32":0.04429832392830263,"33":-0.01658952034141138,"34":0.15262454582323218,"35":-0.18331005379184026,"36":0.1308916194279567,"37":0.027742212534448103,"38":-0.05101963730017992,"39":-0.13244510789231423}},{"sx":1,"sy":1,"depth":40,"w":{"0":0.17792738534196798,"1":0.32907066610750746,"2":-0.04358890935344298,"3":0.020514095981976826,"4":0.180160833270402,"5":-0.0718331907589673,"6":-0.07880391240723389,"7":-0.11039400970927636,"8":-0.0512246467352442,"9":0.20206133982093546,"10":-0.08069989338245118,"11":-0.08342338078877685,"12":-0.09397997417429682,"13":0.09672471047461022,"14":0.1701339613101888,"15":-0.199303852438901,"16":0.013945942901969818,"17":-0.05747576725503457,"18":-0.09697977347901716,"19":-0.10946683760501306,"20":-0.256280163105975,"21":0.13809057029773575,"22":-0.044038750770993174,"23":0.2359884976491879,"24":0.030203836178395616,"25":-0.12433411833954312,"26":-0.027844874309607477,"27":0.2565767681040733,"28":-0.30843114834416824,"29":0.05727290377102445,"30":0.08509664359012742,"31":-0.24053649855676698,"32":-0.18643386283645982,"33":-0.1030249962026079,"34":-0.33736701561278776,"35":-0.03200584386927045,"36":-0.08611384449017905,"37":-0.0961164837076413,"38":0.045051339685331766,"39":0.37030765366581314}},{"sx":1,"sy":1,"depth":40,"w":{"0":0.19801207618166486,"1":-0.14850675122539228,"2":0.02215100796844591,"3":-0.18742950720941567,"4":0.21120475975336267,"5":0.12131195847829872,"6":-0.0241851987015365,"7":-0.11933360730286008,"8":0.0651408053152693,"9":0.043324420519152855,"10":0.003469295605507202,"11":-0.001019378674585424,"12":-0.10435576259888335,"13":0.04606170591551161,"14":0.28646645122191144,"15":-0.063510147592871,"16":-0.05558642193670524,"17":-0.2197594127703434,"18":-0.12279274180882827,"19":0.02293345616952136,"20":-0.0040147690892449765,"21":-0.2833966203495509,"22":-0.1911899056520254,"23":0.09226940049859952,"24":0.05223540641591872,"25":-0.11718340854572286,"26":0.16814518909533827,"27":0.20102266027570725,"28":0.0016213767509314478,"29":0.13629557927242608,"30":-0.04113905948593244,"31":-0.07524444555667685,"32":-0.09791712054675492,"33":0.038361939607354685,"34":-0.0033702572747171967,"35":-0.16421573615271778,"36":-0.05397758050847653,"37":-0.10148943194887239,"38":-0.05921093260950791,"39":-0.11643014955504127}},{"sx":1,"sy":1,"depth":40,"w":{"0":-0.10401455113509869,"1":0.07144532477511627,"2":0.10000721766378598,"3":-0.03418341775816616,"4":0.025621032445504406,"5":0.10786870635338801,"6":0.05404531439473435,"7":0.009182804034948292,"8":0.21413079408683827,"9":0.029125605390322384,"10":0.15548490125785705,"11":0.0018861804845229009,"12":-0.3527405518796118,"13":-0.16896984913196092,"14":-0.20743005774034584,"15":-0.03253506784066512,"16":0.004849324903275256,"17":0.1579896417085819,"18":0.1984056203705362,"19":0.2423912281109129,"20":0.013108794057294215,"21":-0.3320015199996105,"22":0.034007825390539884,"23":0.27860471882371823,"24":-0.09566921582505306,"25":-0.03592781676255311,"26":-0.014171567592461269,"27":0.3527752243063248,"28":-0.16466801394211994,"29":-0.27407327717766433,"30":0.015358434234040111,"31":0.024738791683040415,"32":-0.04686962778240809,"33":0.0434740965029957,"34":0.2364552175948052,"35":-0.439079660561966,"36":-0.042329585031741945,"37":-0.4189659157959465,"38":-0.005836308082444699,"39":0.16244644380813875}},{"sx":1,"sy":1,"depth":40,"w":{"0":-0.36642003046277294,"1":0.07485263022370402,"2":0.0055469088080182865,"3":0.08435737224628172,"4":0.10964019131414558,"5":0.19324150366915083,"6":0.1599954584623644,"7":-0.13711831377346081,"8":0.03790163708737132,"9":0.030980715942894258,"10":0.0363026141638848,"11":-0.2783018981825021,"12":0.19402406076772527,"13":-0.24281365315687672,"14":0.00999522961857604,"15":-0.07788878684542362,"16":-0.11138394138260829,"17":-0.20593386839572986,"18":0.22306713690331897,"19":-0.233915836860816,"20":-0.07789954717035844,"21":0.24055038919874547,"22":-0.12860137598914892,"23":0.2182612057368036,"24":-0.1391589615796726,"25":-0.012753034435578762,"26":-0.28787932928021254,"27":0.0667486670458642,"28":-0.049969812254326916,"29":0.21882019547217582,"30":0.0639248037445517,"31":-0.30908947050362745,"32":0.12703675524761698,"33":0.09603536026242387,"34":-0.057464504571182275,"35":0.045265914634437444,"36":-0.07934039017422176,"37":-0.1026049062981655,"38":0.01389672331013498,"39":0.25625614952969544}},{"sx":1,"sy":1,"depth":40,"w":{"0":0.07749303085053784,"1":0.05522983271501442,"2":0.1361045143696944,"3":0.1186627760220289,"4":-0.07077713792077418,"5":0.04505250811716949,"6":0.18121095318749064,"7":-0.15342574022256097,"8":0.138802048867988,"9":0.30510658967009624,"10":-0.13803345871220093,"11":0.031333060739702476,"12":0.1685645245028024,"13":0.04583555612073383,"14":0.2443032279387017,"15":0.19205959282565827,"16":0.17569262267506192,"17":-0.0680557405847386,"18":0.18696628056575024,"19":0.0750780006426951,"20":-0.0005641085644812819,"21":-0.11855549711242386,"22":-0.048572990663631584,"23":-0.06389742072908586,"24":-0.048245288722704525,"25":0.11380960650566936,"26":0.23473958068787487,"27":-0.15539254346436795,"28":-0.19345053494434444,"29":-0.05994963429649121,"30":-0.021758202597107257,"31":0.2973404902608246,"32":0.12992727014231548,"33":-0.0500832733879304,"34":0.056925770287086695,"35":0.022954086178051426,"36":-0.13590018664949932,"37":-0.10953171927998741,"38":-0.14978409293412331,"39":-0.23191218925855037}},{"sx":1,"sy":1,"depth":40,"w":{"0":0.0498118819698638,"1":-0.024153761950699768,"2":-0.2071392843886262,"3":0.037829125672403395,"4":-0.07843569033612201,"5":0.03201550108910863,"6":0.014090989142613513,"7":0.037368464495283756,"8":0.12001862760783755,"9":-0.14966367162618432,"10":-0.16831375757832343,"11":0.015711336569819056,"12":0.15163570487771086,"13":-0.1021326145891782,"14":-0.05598978931860321,"15":-0.11427577620344397,"16":-0.02196989715656032,"17":0.2903598239212458,"18":-0.04667316805810862,"19":-0.10722775767385603,"20":0.34311948849810336,"21":0.31766023869041526,"22":0.22836101405474754,"23":-0.054821335491407365,"24":-0.007126446431161438,"25":0.0866230823326917,"26":-0.1486313749359211,"27":-0.27377241896988064,"28":0.10831624725247078,"29":-0.06813699704424495,"30":-0.19341530934036935,"31":0.18528753515059918,"32":0.02455650781309948,"33":0.2505546852710692,"34":0.12493862009392069,"35":0.09252018378656786,"36":0.05117231978264322,"37":0.12649984255187394,"38":-0.004612832258390181,"39":-0.08044054838579832}},{"sx":1,"sy":1,"depth":40,"w":{"0":-0.17314313250993066,"1":-0.19070577873741293,"2":-0.10589915846792787,"3":-0.18731381074730238,"4":0.0928977011738527,"5":0.13292997241189966,"6":-0.11492057001758829,"7":-0.05908847647723717,"8":-0.41103664081722063,"9":0.2608856261169642,"10":-0.07609574664313706,"11":0.16106182519741272,"12":-0.1849120370556566,"13":0.012948157876025067,"14":-0.32710372755124717,"15":-0.05023762388564406,"16":-0.09499915553321046,"17":0.20254310198836606,"18":0.34746749008690975,"19":0.18866281828592543,"20":-0.09171589938723936,"21":0.06161909612635468,"22":-0.05025416079424101,"23":-0.24373577754482334,"24":0.06277857272215982,"25":0.23352515371724966,"26":-0.0218405666676457,"27":-0.29143143361246077,"28":0.005558302759469413,"29":-0.0668977555628774,"30":-0.15322871689844947,"31":0.017748939075101253,"32":0.37261802357746665,"33":-0.08549522237329088,"34":-0.11191641612612933,"35":-0.0097388050057038,"36":0.3069523646344619,"37":-0.0667948656684448,"38":0.05579175349190939,"39":-0.02583423661271401}}],"biases":{"sx":1,"sy":1,"depth":10,"w":{"0":-0.05654800899399237,"1":0.02724220382824097,"2":-0.0612476760258065,"3":-0.06921158459852866,"4":-0.07262894384844233,"5":-0.043213395107552094,"6":-0.08614820083951899,"7":0.04060895920680918,"8":-0.0006598237601750313,"9":0.02490307237130151}}},{"out_depth":10,"out_sx":1,"out_sy":1,"layer_type":"tanh"},{"out_depth":3,"out_sx":1,"out_sy":1,"layer_type":"fc","num_inputs":10,"l1_decay_mul":0,"l2_decay_mul":1,"filters":[{"sx":1,"sy":1,"depth":10,"w":{"0":-0.3462995527191309,"1":0.13034574941450414,"2":-0.07665116328876524,"3":-0.6647098902343915,"4":-0.4508942776330293,"5":-0.3834400608826026,"6":-0.4541850965291169,"7":0.51464025771524,"8":0.9070317596329716,"9":0.24884608063023397}},{"sx":1,"sy":1,"depth":10,"w":{"0":0.24190050039344843,"1":-0.4089708790959477,"2":0.5071556138763123,"3":0.1686226403068032,"4":0.7451999809468788,"5":0.5187178944089044,"6":-0.01356564690199887,"7":0.2116558463085861,"8":0.3723013977101841,"9":-0.15540903468518263}},{"sx":1,"sy":1,"depth":10,"w":{"0":-0.3037149020653342,"1":-0.340492066483848,"2":0.8268912407125113,"3":0.7067670536359408,"4":0.9507111353993751,"5":0.5311748356519869,"6":0.5032942522693329,"7":0.03754584021052794,"8":-0.17708683673333173,"9":-0.6818853447998562}}],"biases":{"sx":1,"sy":1,"depth":3,"w":{"0":0.5299124997668397,"1":-0.22173468273983413,"2":-0.3797530865725867}}},{"out_depth":5,"out_sx":1,"out_sy":1,"layer_type":"fc","num_inputs":3,"l1_decay_mul":0,"l2_decay_mul":1,"filters":[{"sx":1,"sy":1,"depth":3,"w":{"0":0.4247195323908604,"1":0.1455698390603309,"2":-1.1249601995652485}},{"sx":1,"sy":1,"depth":3,"w":{"0":0.7622901197293185,"1":-0.7669300038271973,"2":-0.3946145440005268}},{"sx":1,"sy":1,"depth":3,"w":{"0":0.8442693554443245,"1":-0.25140600871656427,"2":-0.5346607561580761}},{"sx":1,"sy":1,"depth":3,"w":{"0":-0.03282328881015619,"1":-1.1685818960324816,"2":-1.0208939411937663}},{"sx":1,"sy":1,"depth":3,"w":{"0":1.2462766829007172,"1":-0.004424363005372404,"2":-0.3650945661794299}}],"biases":{"sx":1,"sy":1,"depth":5,"w":{"0":0.31502182540994744,"1":0.24769024469937095,"2":0.3407603983816911,"3":0.24629164230272804,"4":0.3584972303624142}}},{"out_depth":5,"out_sx":1,"out_sy":1,"layer_type":"regression","num_inputs":5}]});
}